
\data\
ngram 1=40
ngram 2=169
ngram 3=194
ngram 4=189
ngram 5=180
ngram 6=171
ngram 7=162
ngram 8=152
ngram 9=142
ngram 10=142

\1-grams:
-1.346353	</s>
-99	<s>	-0.02971789
-1.744293	AA	-0.1559959
-1.568202	AE	-0.06652547
-1.00393	AH	-0.1619012
-2.045323	AO	-0.1492881
-2.346353	AW	-0.159412
-1.869232	AY	-0.1239823
-2.045323	B	-0.1513319
-1.869232	CH	-0.1261483
-1.647383	D	-0.09246521
-1.744293	DH	-0.07337233
-1.39211	EH	-0.1269141
-1.501255	ER	-0.07910883
-1.869232	EY	-0.1410156
-1.869232	F	-0.1283036
-2.045323	G	-0.1218054
-2.045323	HH	-0.2146772
-1.346353	IH	-0.306103
-1.39211	IY	-0.09664095
-2.045323	JH	-0.1039857
-1.501255	K	-0.05340343
-1.267172	L	-0.1973604
-1.647383	M	-0.09293623
-1.115904	N	0.09186342
-2.346353	NG	-0.157406
-1.869232	OW	-0.09711014
-2.045323	OY	-0.1239823
-1.647383	P	-0.137219
-1.443263	R	-0.134384
-1.346353	S	-0.07096688
-1.869232	SH	-0.2993527
-1.39211	T	-0.07787586
-2.045323	TH	-0.1389226
-2.346353	UW	-0.165375
-1.501255	V	-0.09863097
-1.647383	W	-0.1735004
-2.045323	Y	-0.1085096
-1.23241	Z	-0.08986311
-2.346353	ZH	-0.1239823

\2-grams:
-1.49102	<s> AA	0
-1.49102	<s> AE	0
-1.49102	<s> AH	0
-1.49102	<s> B	0
-1.49102	<s> DH	0
-1.49102	<s> JH	0
-1.49102	<s> M	0
-1.49102	<s> N	0
-1.089914	<s> OW	0
-1.09308	AA CH	0
-0.6919736	AA R	-0.4305794
-1.09308	AA T	0
-1.269171	AE K	0
-1.269171	AE N	0
-1.269171	AE S	0
-1.269171	AE V	0
-0.8680649	AE Z	0
-1.833443	AH CH	0
-1.833443	AH DH	0
-1.432336	AH F	0
-1.833443	AH IH	0
-1.833443	AH JH	0
-1.432336	AH L	0
-1.833443	AH M	0
-0.4973246	AH N	-0.1248457
-1.833443	AH P	0
-1.432336	AH S	0
-1.432336	AH V	0
-1.833443	AH W	0
-0.7920499	AO R	0
-0.7920499	AO Y	0
-0.4910199	AW D	0
-0.9681411	AY P	0
-0.9681411	AY S	0
-0.9681411	AY V	0
-0.7920499	B ER	0
-0.7920499	B OY	0
-0.9681411	CH </s>
-0.9681411	CH T	0
-0.9681411	CH TH	0
-1.18999	D </s>
-1.18999	D AY	0
-1.18999	D ER	0
-1.18999	D EY	0
-1.18999	D Z	0
-1.09308	DH AE	0
-1.09308	DH AH	0
-1.09308	DH EH	0
-1.09308	DH ER	0
-1.044156	EH L	-0.30103
-0.738494	EH N	-0.4329669
-1.044156	EH R	0
-1.445262	EH S	0
-1.445262	EH V	0
-1.336118	ER AH	0
-1.336118	ER B	0
-0.9350117	ER D	0
-1.336118	ER DH	0
-1.336118	ER TH	0
-1.336118	ER Z	0
-0.9681411	EY G	0
-0.9681411	EY K	0
-0.9681411	EY P	0
-0.9681411	F AO	0
-0.9681411	F IH	0
-0.9681411	F R	0
-0.7920499	G AH	0
-0.7920499	G UW	0
-0.3909436	HH AE	0
-1.49102	IH L	0
-1.089914	IH N	0
-1.49102	IH NG	0
-1.49102	IH SH	0
-0.39794	IH Z	0
-1.49102	IH ZH	0
-1.445262	IY HH	0
-1.445262	IY K	0
-0.738494	IY L	0
-1.445262	IY M	0
-1.445262	IY T	0
-1.445262	IY V	0
-1.445262	IY Z	0
-0.7920499	JH AH	0
-0.7920499	JH EH	0
-1.336118	K AH	0
-0.9350117	K EY	0
-1.336118	K L	0
-1.336118	K R	0
-1.336118	K S	0
-1.336118	K SH	0
-1.570201	L </s>
-0.4771213	L AH	0
-1.570201	L AO	0
-1.570201	L AW	0
-1.570201	L IH	0
-1.570201	L IY	0
-1.570201	L Y	0
-1.169095	L Z	-0.3174204
-1.18999	M </s>
-1.18999	M AH	0
-0.7888837	M AY	0
-1.18999	M IH	0
-1.320363	N </s>
-1.721469	N AH	0
-1.721469	N CH	0
-1.721469	N D	0
-1.320363	N EH	0
-1.721469	N L	0
-1.721469	N OW	0
-1.721469	N S	0
-1.721469	N SH	0
-1.0147	N T	-0.3895547
-1.721469	N V	0
-1.721469	N W	0
-1.721469	N Z	0
-0.4910199	NG AE	0
-0.9681411	OW K	0
-0.9681411	OW N	0
-0.9681411	OW S	0
-0.7920499	OY L	0
-0.7920499	OY S	0
-0.7888837	P AA	0
-1.18999	P AE	0
-1.18999	P IY	0
-1.18999	P K	0
-1.39411	R IH	0
-0.6873415	R IY	-0.3895547
-1.39411	R R	0
-0.9930037	R T	0
-1.39411	R Z	0
-0.7842516	S AH	0
-1.49102	S EH	0
-1.089914	S IH	-0.2552725
-1.49102	S IY	0
-1.49102	S K	0
-1.49102	S P	0
-1.49102	S W	0
-0.2613728	SH AH	-0.3107899
-1.445262	T AH	0
-1.445262	T EH	0
-0.738494	T IY	0
-1.445262	T N	0
-1.445262	T P	0
-1.044156	T W	-0.4000551
-0.7920499	TH D	0
-0.7920499	TH IH	0
-0.4910199	UW G	0
-1.336118	V EH	0
-1.336118	V ER	0
-0.9350117	V IH	0
-1.336118	V K	0
-1.336118	V M	0
-1.336118	V OY	0
-1.18999	W AA	0
-0.7888837	W EH	-0.3895547
-0.7888837	W ER	-0.4235039
-0.7920499	Y AH	0
-0.7920499	Y ER	0
-0.5118834	Z </s>
-1.604963	Z AH	0
-1.604963	Z DH	0
-1.604963	Z F	0
-1.604963	Z HH	0
-1.604963	Z L	0
-1.604963	Z M	0
-1.604963	Z N	0
-1.604963	Z S	0
-1.604963	Z T	0
-0.4910199	ZH AH	0

\3-grams:
-0.6919736	<s> AA R	0
-0.6919736	P AA R	0
-1.09308	P AA T	0
-1.09308	W AA CH	0
-1.269171	<s> AE K	0
-1.269171	DH AE N	0
-1.269171	HH AE V	0
-0.8680649	HH AE Z	0
-0.8680649	NG AE Z	0
-1.269171	P AE S	0
-1.833443	<s> AH W	0
-1.833443	DH AH M	0
-1.432336	ER AH V	0
-1.432336	G AH L	0
-0.4973246	JH AH N	0
-1.833443	K AH P	0
-1.833443	L AH JH	0
-0.4973246	L AH N	0
-1.432336	L AH S	0
-1.432336	L AH V	0
-1.833443	M AH DH	0
-1.432336	N AH S	0
-1.833443	S AH CH	0
-1.833443	S AH IH	0
-0.4973246	S AH N	0
-1.743126	SH AH L	0
-0.1760913	SH AH N	0
-1.432336	T AH F	0
-0.4973246	Y AH N	0
-1.432336	Z AH F	0
-0.4973246	ZH AH N	0
-0.7920499	F AO R	0
-0.7920499	L AO Y	0
-0.4910199	L AW D	0
-0.9681411	D AY S	0
-0.9681411	M AY P	0
-0.9681411	M AY V	0
-0.7920499	<s> B ER	0
-0.7920499	ER B OY	0
-0.9681411	AA CH T	0
-0.9681411	AH CH TH	0
-1.18999	AW D ER	0
-1.18999	ER D Z	0
-1.18999	N D AY	0
-1.18999	TH D EY	0
-1.09308	<s> DH EH	0
-1.09308	AH DH ER	0
-1.09308	ER DH AE	0
-1.09308	Z DH AH	0
-1.044156	DH EH R	0
-1.044156	JH EH L	0
-1.044156	N EH R	0
-1.445262	N EH V	0
-1.445262	S EH S	0
-1.044156	T EH L	0
-0.738494	V EH N	0
-0.1760913	W EH N	0
-1.336118	B ER TH	0
-1.336118	D ER DH	0
-1.336118	DH ER AH	0
-1.336118	V ER B	0
-0.1760913	W ER D	0
-1.336118	Y ER Z	0
-0.9681411	D EY P	0
-0.9681411	K EY G	0
-0.9681411	K EY K	0
-0.9681411	AH F IH	0
-0.9681411	AH F R	0
-0.9681411	Z F AO	0
-0.7920499	EY G UW	0
-0.7920499	UW G AH	0
-0.3909436	IY HH AE	0
-0.3909436	Z HH AE	0
-0.39794	AH IH Z	0
-1.49102	F IH SH	0
-1.089914	L IH N	0
-1.49102	M IH L	0
-0.39794	R IH Z	0
-0.1760913	S IH Z	0
-1.49102	TH IH NG	0
-1.089914	V IH N	0
-1.49102	V IH ZH	0
-0.738494	L IY L	0
-1.445262	P IY K	0
-0.1760913	R IY L	0
-1.834817	R IY M	0
-1.445262	S IY HH	0
-1.445262	T IY T	0
-1.445262	T IY V	0
-1.445262	T IY Z	0
-0.7920499	<s> JH EH	0
-0.7920499	AH JH AH	0
-1.336118	AE K SH	0
-1.336118	EY K S	0
-1.336118	IY K L	0
-0.9350117	OW K EY	0
-0.9350117	P K EY	0
-1.336118	S K R	0
-1.336118	V K AH	0
-1.570201	AH L IH	0
-1.169095	AH L Z	0
-0.1760913	EH L AH	0
-1.570201	IH L Y	0
-0.4771213	IY L AH	0
-1.570201	IY L AO	0
-1.570201	K L AW	0
-1.570201	N L IY	0
-1.169095	OY L Z	0
-0.4771213	Z L AH	0
-0.7888837	<s> M AY	0
-1.18999	AH M AH	0
-1.18999	V M IH	0
-0.7888837	Z M AY	0
-1.721469	<s> N AH	0
-1.721469	AE N W	0
-0.544068	AH N </s>
-1.846315	AH N CH	0
-1.846315	AH N D	0
-1.445208	AH N EH	0
-1.846315	AH N S	0
-1.846315	AH N Z	0
-2.154436	EH N SH	0
-0.1760913	EH N T	0
-1.0147	IH N T	0
-1.721469	IH N V	0
-1.721469	OW N L	0
-1.320363	T N EH	0
-1.721469	Z N OW	0
-0.4910199	IH NG AE	0
-0.9681411	<s> OW K	0
-0.9681411	<s> OW N	0
-0.9681411	N OW S	0
-0.7920499	B OY L	0
-0.7920499	V OY S	0
-1.18999	AH P K	0
-1.18999	AY P AE	0
-0.7888837	EY P AA	0
-1.18999	S P IY	0
-0.7888837	T P AA	0
-0.1760913	AA R T	0
-1.39411	AO R R	0
-1.39411	EH R IH	0
-1.39411	EH R Z	0
-0.6873415	F R IY	0
-0.6873415	K R IY	0
-0.6873415	R R IY	0
-1.49102	AE S W	0
-1.49102	AH S EH	0
-1.49102	AH S IY	0
-1.49102	AY S K	0
-0.7842516	EH S AH	0
-0.7842516	K S AH	0
-1.089914	N S IH	0
-0.7842516	OW S AH	0
-1.089914	OY S IH	0
-1.49102	Z S P	0
-0.2613728	IH SH AH	0
-0.2613728	K SH AH	0
-0.2613728	N SH AH	0
-1.445262	AA T N	0
-1.445262	CH T P	0
-1.044156	IY T W	0
-1.834817	N T EH	0
-0.1760913	N T IY	0
-1.445262	R T AH	0
-0.738494	R T IY	0
-1.044156	Z T W	0
-0.7920499	CH TH IH	0
-0.7920499	ER TH D	0
-0.4910199	G UW G	0
-1.336118	AE V K	0
-0.9350117	AH V IH	0
-1.336118	AH V M	0
-1.336118	AY V OY	0
-1.336118	EH V ER	0
-0.9350117	IY V IH	0
-1.336118	N V EH	0
-1.18999	AH W AA	0
-0.7888837	N W ER	0
-0.7888837	S W ER	0
-0.1760913	T W EH	0
-0.7920499	AO Y ER	0
-0.7920499	L Y AH	0
-1.604963	AE Z AH	0
-1.604963	AE Z T	0
-1.604963	ER Z L	0
-1.604963	IH Z DH	0
-1.604963	IH Z F	0
-1.604963	IH Z M	0
-1.604963	IH Z N	0
-1.604963	IY Z HH	0
-0.1760913	L Z </s>
-1.604963	N Z S	0
-0.4910199	IH ZH AH	0

\4-grams:
-0.6919736	EY P AA R	0
-1.09308	T P AA T	0
-1.09308	AH W AA CH	0
-1.269171	ER DH AE N	0
-0.8680649	IY HH AE Z	0
-1.269171	Z HH AE V	0
-0.8680649	IH NG AE Z	0
-1.269171	AY P AE S	0
-1.833443	Z DH AH M	0
-1.432336	DH ER AH V	0
-1.432336	UW G AH L	0
-0.4973246	AH JH AH N	0
-1.833443	V K AH P	0
-1.833443	EH L AH JH	0
-1.432336	EH L AH S	0
-0.4973246	IY L AH N	0
-1.432336	Z L AH V	0
-1.833443	AH M AH DH	0
-1.432336	<s> N AH S	0
-1.833443	EH S AH IH	0
-0.4973246	K S AH N	0
-1.833443	OW S AH CH	0
-1.743126	IH SH AH L	0
-0.1760913	K SH AH N	0
-0.1760913	N SH AH N	0
-1.432336	R T AH F	0
-0.4973246	L Y AH N	0
-1.432336	AE Z AH F	0
-0.4973246	IH ZH AH N	0
-0.7920499	Z F AO R	0
-0.7920499	IY L AO Y	0
-0.4910199	K L AW D	0
-0.9681411	N D AY S	0
-0.9681411	<s> M AY V	0
-0.9681411	Z M AY P	0
-0.7920499	V ER B OY	0
-0.9681411	W AA CH T	0
-0.9681411	S AH CH TH	0
-1.18999	L AW D ER	0
-1.18999	W ER D Z	0
-1.18999	AH N D AY	0
-1.18999	ER TH D EY	0
-1.09308	M AH DH ER	0
-1.09308	D ER DH AE	0
-1.09308	IH Z DH AH	0
-1.044156	<s> DH EH R	0
-1.044156	<s> JH EH L	0
-1.044156	AH N EH R	0
-1.445262	T N EH V	0
-1.445262	AH S EH S	0
-1.044156	N T EH L	0
-0.738494	N V EH N	0
-0.1760913	T W EH N	0
-1.336118	<s> B ER TH	0
-1.336118	AW D ER DH	0
-1.336118	AH DH ER AH	0
-1.336118	EH V ER B	0
-0.1760913	N W ER D	0
-0.1760913	S W ER D	0
-1.336118	AO Y ER Z	0
-0.9681411	TH D EY P	0
-0.9681411	OW K EY G	0
-0.9681411	P K EY K	0
-0.9681411	T AH F IH	0
-0.9681411	Z AH F R	0
-0.9681411	IH Z F AO	0
-0.7920499	K EY G UW	0
-0.7920499	G UW G AH	0
-0.3909436	S IY HH AE	0
-0.3909436	IY Z HH AE	0
-0.39794	S AH IH Z	0
-1.49102	AH F IH SH	0
-1.089914	AH L IH N	0
-1.49102	V M IH L	0
-0.39794	EH R IH Z	0
-0.1760913	N S IH Z	0
-0.1760913	OY S IH Z	0
-1.49102	CH TH IH NG	0
-1.089914	AH V IH N	0
-1.49102	IY V IH ZH	0
-0.738494	N L IY L	0
-1.445262	S P IY K	0
-0.1760913	F R IY L	0
-1.834817	K R IY M	0
-0.1760913	R R IY L	0
-1.445262	AH S IY HH	0
-1.445262	N T IY T	0
-1.445262	N T IY V	0
-1.445262	R T IY Z	0
-0.7920499	L AH JH AH	0
-1.336118	<s> AE K SH	0
-1.336118	K EY K S	0
-1.336118	P IY K L	0
-0.9350117	<s> OW K EY	0
-0.9350117	AH P K EY	0
-1.336118	AY S K R	0
-1.336118	AE V K AH	0
-1.169095	G AH L Z	0
-1.570201	SH AH L IH	0
-0.1760913	JH EH L AH	0
-0.1760913	T EH L AH	0
-1.570201	M IH L Y	0
-1.570201	L IY L AO	0
-0.4771213	R IY L AH	0
-1.570201	IY K L AW	0
-1.570201	OW N L IY	0
-1.169095	B OY L Z	0
-0.4771213	ER Z L AH	0
-1.18999	DH AH M AH	0
-1.18999	AH V M IH	0
-0.7888837	IH Z M AY	0
-1.721469	DH AE N W	0
-1.846315	JH AH N S	0
-1.846315	L AH N CH	0
-1.846315	S AH N D	0
-1.846315	SH AH N Z	0
-1.445208	Y AH N EH	0
-2.154436	V EH N SH	0
-0.1760913	W EH N T	0
-1.0147	L IH N T	0
-1.721469	V IH N V	0
-1.721469	<s> OW N L	0
-1.320363	AA T N EH	0
-1.721469	IH Z N OW	0
-0.4910199	TH IH NG AE	0
-0.9681411	Z N OW S	0
-0.7920499	ER B OY L	0
-0.7920499	AY V OY S	0
-1.18999	K AH P K	0
-1.18999	M AY P AE	0
-0.7888837	D EY P AA	0
-1.18999	Z S P IY	0
-0.7888837	CH T P AA	0
-0.1760913	<s> AA R T	0
-0.1760913	P AA R T	0
-1.39411	F AO R R	0
-1.39411	DH EH R IH	0
-1.39411	N EH R Z	0
-0.6873415	AH F R IY	0
-0.6873415	S K R IY	0
-0.6873415	AO R R IY	0
-1.49102	P AE S W	0
-1.49102	L AH S IY	0
-1.49102	N AH S EH	0
-1.49102	D AY S K	0
-0.7842516	S EH S AH	0
-0.7842516	EY K S AH	0
-1.089914	AH N S IH	0
-0.7842516	N OW S AH	0
-1.089914	V OY S IH	0
-1.49102	N Z S P	0
-0.2613728	F IH SH AH	0
-0.2613728	AE K SH AH	0
-0.2613728	EH N SH AH	0
-1.445262	P AA T N	0
-1.445262	AA CH T P	0
-1.044156	T IY T W	0
-0.1760913	EH N T IY	0
-1.834817	IH N T EH	0
-1.445262	AA R T AH	0
-0.738494	AA R T IY	0
-1.044156	AE Z T W	0
-0.7920499	AH CH TH IH	0
-0.7920499	B ER TH D	0
-0.4910199	EY G UW G	0
-1.336118	HH AE V K	0
-0.9350117	ER AH V IH	0
-1.336118	L AH V M	0
-1.336118	M AY V OY	0
-1.336118	N EH V ER	0
-0.9350117	T IY V IH	0
-1.336118	IH N V EH	0
-1.18999	<s> AH W AA	0
-0.7888837	AE N W ER	0
-0.7888837	AE S W ER	0
-0.1760913	IY T W EH	0
-0.1760913	Z T W EH	0
-0.7920499	L AO Y ER	0
-0.7920499	IH L Y AH	0
-1.604963	HH AE Z T	0
-1.604963	NG AE Z AH	0
-1.604963	Y ER Z L	0
-1.604963	AH IH Z DH	0
-1.604963	R IH Z N	0
-1.604963	S IH Z F	0
-1.604963	S IH Z M	0
-1.604963	T IY Z HH	0
-1.604963	AH N Z S	0
-0.4910199	V IH ZH AH	0

\5-grams:
-0.6919736	D EY P AA R	0
-1.09308	CH T P AA T	0
-1.09308	<s> AH W AA CH	0
-1.269171	D ER DH AE N	0
-0.8680649	S IY HH AE Z	0
-1.269171	IY Z HH AE V	0
-0.8680649	TH IH NG AE Z	0
-1.269171	M AY P AE S	0
-1.833443	IH Z DH AH M	0
-1.432336	AH DH ER AH V	0
-1.432336	G UW G AH L	0
-0.4973246	L AH JH AH N	0
-1.833443	AE V K AH P	0
-1.432336	JH EH L AH S	0
-1.833443	T EH L AH JH	0
-0.4973246	R IY L AH N	0
-1.432336	ER Z L AH V	0
-1.833443	DH AH M AH DH	0
-1.833443	S EH S AH IH	0
-0.4973246	EY K S AH N	0
-1.833443	N OW S AH CH	0
-1.743126	F IH SH AH L	0
-0.1760913	AE K SH AH N	0
-0.1760913	EH N SH AH N	0
-1.432336	AA R T AH F	0
-0.4973246	IH L Y AH N	0
-1.432336	NG AE Z AH F	0
-0.4973246	V IH ZH AH N	0
-0.7920499	IH Z F AO R	0
-0.7920499	L IY L AO Y	0
-0.4910199	IY K L AW D	0
-0.9681411	AH N D AY S	0
-0.9681411	IH Z M AY P	0
-0.7920499	EH V ER B OY	0
-0.9681411	AH W AA CH T	0
-0.9681411	OW S AH CH TH	0
-1.18999	K L AW D ER	0
-1.18999	N W ER D Z	0
-1.18999	S AH N D AY	0
-1.18999	B ER TH D EY	0
-1.09308	AH M AH DH ER	0
-1.09308	AW D ER DH AE	0
-1.09308	AH IH Z DH AH	0
-1.044156	Y AH N EH R	0
-1.445262	AA T N EH V	0
-1.445262	N AH S EH S	0
-1.044156	IH N T EH L	0
-0.738494	IH N V EH N	0
-0.1760913	IY T W EH N	0
-0.1760913	Z T W EH N	0
-1.336118	L AW D ER DH	0
-1.336118	M AH DH ER AH	0
-1.336118	N EH V ER B	0
-0.1760913	AE N W ER D	0
-0.1760913	AE S W ER D	0
-1.336118	L AO Y ER Z	0
-0.9681411	ER TH D EY P	0
-0.9681411	<s> OW K EY G	0
-0.9681411	AH P K EY K	0
-0.9681411	R T AH F IH	0
-0.9681411	AE Z AH F R	0
-0.9681411	S IH Z F AO	0
-0.7920499	OW K EY G UW	0
-0.7920499	EY G UW G AH	0
-0.3909436	AH S IY HH AE	0
-0.3909436	T IY Z HH AE	0
-0.39794	EH S AH IH Z	0
-1.49102	T AH F IH SH	0
-1.089914	SH AH L IH N	0
-1.49102	AH V M IH L	0
-0.39794	DH EH R IH Z	0
-0.1760913	AH N S IH Z	0
-0.1760913	V OY S IH Z	0
-1.49102	AH CH TH IH NG	0
-1.089914	ER AH V IH N	0
-1.49102	T IY V IH ZH	0
-0.738494	OW N L IY L	0
-1.445262	Z S P IY K	0
-0.1760913	AH F R IY L	0
-1.834817	S K R IY M	0
-0.1760913	AO R R IY L	0
-1.445262	L AH S IY HH	0
-1.445262	EH N T IY T	0
-1.445262	EH N T IY V	0
-1.445262	AA R T IY Z	0
-0.7920499	EH L AH JH AH	0
-1.336118	P K EY K S	0
-1.336118	S P IY K L	0
-0.9350117	K AH P K EY	0
-1.336118	D AY S K R	0
-1.336118	HH AE V K AH	0
-1.169095	UW G AH L Z	0
-1.570201	IH SH AH L IH	0
-0.1760913	<s> JH EH L AH	0
-0.1760913	N T EH L AH	0
-1.570201	V M IH L Y	0
-1.570201	N L IY L AO	0
-0.4771213	F R IY L AH	0
-1.570201	P IY K L AW	0
-1.570201	<s> OW N L IY	0
-1.169095	ER B OY L Z	0
-0.4771213	Y ER Z L AH	0
-1.18999	Z DH AH M AH	0
-1.18999	L AH V M IH	0
-0.7888837	S IH Z M AY	0
-1.721469	ER DH AE N W	0
-1.846315	AH JH AH N S	0
-1.846315	IY L AH N CH	0
-1.846315	K S AH N D	0
-1.846315	K SH AH N Z	0
-1.445208	L Y AH N EH	0
-2.154436	N V EH N SH	0
-0.1760913	T W EH N T	0
-1.0147	AH L IH N T	0
-1.721469	AH V IH N V	0
-1.320363	P AA T N EH	0
-1.721469	R IH Z N OW	0
-0.4910199	CH TH IH NG AE	0
-0.9681411	IH Z N OW S	0
-0.7920499	V ER B OY L	0
-0.7920499	M AY V OY S	0
-1.18999	V K AH P K	0
-1.18999	Z M AY P AE	0
-0.7888837	TH D EY P AA	0
-1.18999	N Z S P IY	0
-0.7888837	AA CH T P AA	0
-0.1760913	EY P AA R T	0
-1.39411	Z F AO R R	0
-1.39411	<s> DH EH R IH	0
-1.39411	AH N EH R Z	0
-0.6873415	Z AH F R IY	0
-0.6873415	AY S K R IY	0
-0.6873415	F AO R R IY	0
-1.49102	AY P AE S W	0
-1.49102	EH L AH S IY	0
-1.49102	<s> N AH S EH	0
-1.49102	N D AY S K	0
-0.7842516	AH S EH S AH	0
-0.7842516	K EY K S AH	0
-1.089914	JH AH N S IH	0
-0.7842516	Z N OW S AH	0
-1.089914	AY V OY S IH	0
-1.49102	AH N Z S P	0
-0.2613728	AH F IH SH AH	0
-0.2613728	<s> AE K SH AH	0
-0.2613728	V EH N SH AH	0
-1.445262	T P AA T N	0
-1.445262	W AA CH T P	0
-1.044156	N T IY T W	0
-0.1760913	W EH N T IY	0
-1.834817	L IH N T EH	0
-1.445262	<s> AA R T AH	0
-0.738494	P AA R T IY	0
-1.044156	HH AE Z T W	0
-0.7920499	S AH CH TH IH	0
-0.7920499	<s> B ER TH D	0
-0.4910199	K EY G UW G	0
-1.336118	Z HH AE V K	0
-0.9350117	DH ER AH V IH	0
-1.336118	Z L AH V M	0
-1.336118	<s> M AY V OY	0
-1.336118	T N EH V ER	0
-0.9350117	N T IY V IH	0
-1.336118	V IH N V EH	0
-0.7888837	DH AE N W ER	0
-0.7888837	P AE S W ER	0
-0.1760913	T IY T W EH	0
-0.1760913	AE Z T W EH	0
-0.7920499	IY L AO Y ER	0
-0.7920499	M IH L Y AH	0
-1.604963	IY HH AE Z T	0
-1.604963	IH NG AE Z AH	0
-1.604963	AO Y ER Z L	0
-1.604963	S AH IH Z DH	0
-1.604963	EH R IH Z N	0
-1.604963	N S IH Z F	0
-1.604963	OY S IH Z M	0
-1.604963	R T IY Z HH	0
-1.604963	SH AH N Z S	0
-0.4910199	IY V IH ZH AH	0

\6-grams:
-0.6919736	TH D EY P AA R	0
-1.09308	AA CH T P AA T	0
-1.269171	AW D ER DH AE N	0
-0.8680649	AH S IY HH AE Z	0
-1.269171	T IY Z HH AE V	0
-0.8680649	CH TH IH NG AE Z	0
-1.269171	Z M AY P AE S	0
-1.833443	AH IH Z DH AH M	0
-1.432336	M AH DH ER AH V	0
-1.432336	EY G UW G AH L	0
-0.4973246	EH L AH JH AH N	0
-1.833443	HH AE V K AH P	0
-1.432336	<s> JH EH L AH S	0
-1.833443	N T EH L AH JH	0
-0.4973246	F R IY L AH N	0
-1.432336	Y ER Z L AH V	0
-1.833443	Z DH AH M AH DH	0
-1.833443	AH S EH S AH IH	0
-0.4973246	K EY K S AH N	0
-1.833443	Z N OW S AH CH	0
-1.743126	AH F IH SH AH L	0
-0.1760913	<s> AE K SH AH N	0
-0.1760913	V EH N SH AH N	0
-1.432336	<s> AA R T AH F	0
-0.4973246	M IH L Y AH N	0
-1.432336	IH NG AE Z AH F	0
-0.4973246	IY V IH ZH AH N	0
-0.7920499	S IH Z F AO R	0
-0.7920499	N L IY L AO Y	0
-0.4910199	P IY K L AW D	0
-0.9681411	S AH N D AY S	0
-0.9681411	S IH Z M AY P	0
-0.7920499	N EH V ER B OY	0
-0.9681411	<s> AH W AA CH T	0
-0.9681411	N OW S AH CH TH	0
-1.18999	IY K L AW D ER	0
-1.18999	AE N W ER D Z	0
-1.18999	K S AH N D AY	0
-1.18999	<s> B ER TH D EY	0
-1.09308	DH AH M AH DH ER	0
-1.09308	L AW D ER DH AE	0
-1.09308	S AH IH Z DH AH	0
-1.044156	L Y AH N EH R	0
-1.445262	P AA T N EH V	0
-1.445262	<s> N AH S EH S	0
-1.044156	L IH N T EH L	0
-0.738494	V IH N V EH N	0
-0.1760913	T IY T W EH N	0
-0.1760913	AE Z T W EH N	0
-1.336118	K L AW D ER DH	0
-1.336118	AH M AH DH ER AH	0
-1.336118	T N EH V ER B	0
-0.1760913	DH AE N W ER D	0
-0.1760913	P AE S W ER D	0
-1.336118	IY L AO Y ER Z	0
-0.9681411	B ER TH D EY P	0
-0.9681411	K AH P K EY K	0
-0.9681411	AA R T AH F IH	0
-0.9681411	NG AE Z AH F R	0
-0.9681411	N S IH Z F AO	0
-0.7920499	<s> OW K EY G UW	0
-0.7920499	K EY G UW G AH	0
-0.3909436	L AH S IY HH AE	0
-0.3909436	R T IY Z HH AE	0
-0.39794	S EH S AH IH Z	0
-1.49102	R T AH F IH SH	0
-1.089914	IH SH AH L IH N	0
-1.49102	L AH V M IH L	0
-0.39794	<s> DH EH R IH Z	0
-0.1760913	JH AH N S IH Z	0
-0.1760913	AY V OY S IH Z	0
-1.49102	S AH CH TH IH NG	0
-1.089914	DH ER AH V IH N	0
-1.49102	N T IY V IH ZH	0
-0.738494	<s> OW N L IY L	0
-1.445262	N Z S P IY K	0
-0.1760913	Z AH F R IY L	0
-1.834817	AY S K R IY M	0
-0.1760913	F AO R R IY L	0
-1.445262	EH L AH S IY HH	0
-1.445262	W EH N T IY T	0
-1.445262	W EH N T IY V	0
-1.445262	P AA R T IY Z	0
-0.7920499	T EH L AH JH AH	0
-1.336118	AH P K EY K S	0
-1.336118	Z S P IY K L	0
-0.9350117	V K AH P K EY	0
-1.336118	N D AY S K R	0
-1.336118	Z HH AE V K AH	0
-1.169095	G UW G AH L Z	0
-1.570201	F IH SH AH L IH	0
-0.1760913	IH N T EH L AH	0
-1.570201	AH V M IH L Y	0
-1.570201	OW N L IY L AO	0
-0.4771213	AH F R IY L AH	0
-1.570201	S P IY K L AW	0
-1.169095	V ER B OY L Z	0
-0.4771213	AO Y ER Z L AH	0
-1.18999	IH Z DH AH M AH	0
-1.18999	Z L AH V M IH	0
-0.7888837	OY S IH Z M AY	0
-1.721469	D ER DH AE N W	0
-1.846315	L AH JH AH N S	0
-1.846315	R IY L AH N CH	0
-1.846315	EY K S AH N D	0
-1.846315	AE K SH AH N Z	0
-1.445208	IH L Y AH N EH	0
-2.154436	IH N V EH N SH	0
-0.1760913	IY T W EH N T	0
-0.1760913	Z T W EH N T	0
-1.0147	SH AH L IH N T	0
-1.721469	ER AH V IH N V	0
-1.320363	T P AA T N EH	0
-1.721469	EH R IH Z N OW	0
-0.4910199	AH CH TH IH NG AE	0
-0.9681411	R IH Z N OW S	0
-0.7920499	EH V ER B OY L	0
-0.7920499	<s> M AY V OY S	0
-1.18999	AE V K AH P K	0
-1.18999	IH Z M AY P AE	0
-0.7888837	ER TH D EY P AA	0
-1.18999	AH N Z S P IY	0
-0.7888837	W AA CH T P AA	0
-0.1760913	D EY P AA R T	0
-1.39411	IH Z F AO R R	0
-1.39411	Y AH N EH R Z	0
-0.6873415	AE Z AH F R IY	0
-0.6873415	D AY S K R IY	0
-0.6873415	Z F AO R R IY	0
-1.49102	M AY P AE S W	0
-1.49102	JH EH L AH S IY	0
-1.49102	AH N D AY S K	0
-0.7842516	N AH S EH S AH	0
-0.7842516	P K EY K S AH	0
-1.089914	AH JH AH N S IH	0
-0.7842516	IH Z N OW S AH	0
-1.089914	M AY V OY S IH	0
-1.49102	SH AH N Z S P	0
-0.2613728	T AH F IH SH AH	0
-0.2613728	N V EH N SH AH	0
-1.445262	CH T P AA T N	0
-1.445262	AH W AA CH T P	0
-1.044156	EH N T IY T W	0
-0.1760913	T W EH N T IY	0
-1.834817	AH L IH N T EH	0
-0.738494	EY P AA R T IY	0
-1.044156	IY HH AE Z T W	0
-0.7920499	OW S AH CH TH IH	0
-0.4910199	OW K EY G UW G	0
-1.336118	IY Z HH AE V K	0
-0.9350117	AH DH ER AH V IH	0
-1.336118	ER Z L AH V M	0
-1.336118	AA T N EH V ER	0
-0.9350117	EH N T IY V IH	0
-1.336118	AH V IH N V EH	0
-0.7888837	ER DH AE N W ER	0
-0.7888837	AY P AE S W ER	0
-0.1760913	N T IY T W EH	0
-0.1760913	HH AE Z T W EH	0
-0.7920499	L IY L AO Y ER	0
-0.7920499	V M IH L Y AH	0
-1.604963	S IY HH AE Z T	0
-1.604963	TH IH NG AE Z AH	0
-1.604963	L AO Y ER Z L	0
-1.604963	EH S AH IH Z DH	0
-1.604963	DH EH R IH Z N	0
-1.604963	AH N S IH Z F	0
-1.604963	V OY S IH Z M	0
-1.604963	AA R T IY Z HH	0
-1.604963	K SH AH N Z S	0
-0.4910199	T IY V IH ZH AH	0

\7-grams:
-0.6919736	ER TH D EY P AA R	0
-1.09308	W AA CH T P AA T	0
-1.269171	L AW D ER DH AE N	0
-0.8680649	L AH S IY HH AE Z	0
-1.269171	R T IY Z HH AE V	0
-0.8680649	AH CH TH IH NG AE Z	0
-1.269171	IH Z M AY P AE S	0
-1.833443	S AH IH Z DH AH M	0
-1.432336	AH M AH DH ER AH V	0
-1.432336	K EY G UW G AH L	0
-0.4973246	T EH L AH JH AH N	0
-1.833443	Z HH AE V K AH P	0
-1.833443	IH N T EH L AH JH	0
-0.4973246	AH F R IY L AH N	0
-1.432336	AO Y ER Z L AH V	0
-1.833443	IH Z DH AH M AH DH	0
-1.833443	N AH S EH S AH IH	0
-0.4973246	P K EY K S AH N	0
-1.833443	IH Z N OW S AH CH	0
-1.743126	T AH F IH SH AH L	0
-0.1760913	N V EH N SH AH N	0
-0.4973246	V M IH L Y AH N	0
-1.432336	TH IH NG AE Z AH F	0
-0.4973246	T IY V IH ZH AH N	0
-0.7920499	N S IH Z F AO R	0
-0.7920499	OW N L IY L AO Y	0
-0.4910199	S P IY K L AW D	0
-0.9681411	K S AH N D AY S	0
-0.9681411	OY S IH Z M AY P	0
-0.7920499	T N EH V ER B OY	0
-0.9681411	Z N OW S AH CH TH	0
-1.18999	P IY K L AW D ER	0
-1.18999	DH AE N W ER D Z	0
-1.18999	EY K S AH N D AY	0
-1.09308	Z DH AH M AH DH ER	0
-1.09308	K L AW D ER DH AE	0
-1.09308	EH S AH IH Z DH AH	0
-1.044156	IH L Y AH N EH R	0
-1.445262	T P AA T N EH V	0
-1.044156	AH L IH N T EH L	0
-0.738494	AH V IH N V EH N	0
-0.1760913	N T IY T W EH N	0
-0.1760913	HH AE Z T W EH N	0
-1.336118	IY K L AW D ER DH	0
-1.336118	DH AH M AH DH ER AH	0
-1.336118	AA T N EH V ER B	0
-0.1760913	ER DH AE N W ER D	0
-0.1760913	AY P AE S W ER D	0
-1.336118	L IY L AO Y ER Z	0
-0.9681411	<s> B ER TH D EY P	0
-0.9681411	V K AH P K EY K	0
-0.9681411	<s> AA R T AH F IH	0
-0.9681411	IH NG AE Z AH F R	0
-0.9681411	AH N S IH Z F AO	0
-0.7920499	OW K EY G UW G AH	0
-0.3909436	EH L AH S IY HH AE	0
-0.3909436	AA R T IY Z HH AE	0
-0.39794	AH S EH S AH IH Z	0
-1.49102	AA R T AH F IH SH	0
-1.089914	F IH SH AH L IH N	0
-1.49102	Z L AH V M IH L	0
-0.1760913	AH JH AH N S IH Z	0
-0.1760913	M AY V OY S IH Z	0
-1.49102	OW S AH CH TH IH NG	0
-1.089914	AH DH ER AH V IH N	0
-1.49102	EH N T IY V IH ZH	0
-1.445262	AH N Z S P IY K	0
-0.1760913	AE Z AH F R IY L	0
-1.834817	D AY S K R IY M	0
-0.1760913	Z F AO R R IY L	0
-1.445262	JH EH L AH S IY HH	0
-1.445262	T W EH N T IY T	0
-1.445262	T W EH N T IY V	0
-1.445262	EY P AA R T IY Z	0
-0.7920499	N T EH L AH JH AH	0
-1.336118	K AH P K EY K S	0
-1.336118	N Z S P IY K L	0
-0.9350117	AE V K AH P K EY	0
-1.336118	AH N D AY S K R	0
-1.336118	IY Z HH AE V K AH	0
-1.169095	EY G UW G AH L Z	0
-1.570201	AH F IH SH AH L IH	0
-0.1760913	L IH N T EH L AH	0
-1.570201	L AH V M IH L Y	0
-1.570201	<s> OW N L IY L AO	0
-0.4771213	Z AH F R IY L AH	0
-1.570201	Z S P IY K L AW	0
-1.169095	EH V ER B OY L Z	0
-0.4771213	L AO Y ER Z L AH	0
-1.18999	AH IH Z DH AH M AH	0
-1.18999	ER Z L AH V M IH	0
-0.7888837	V OY S IH Z M AY	0
-1.721469	AW D ER DH AE N W	0
-1.846315	EH L AH JH AH N S	0
-1.846315	F R IY L AH N CH	0
-1.846315	K EY K S AH N D	0
-1.846315	<s> AE K SH AH N Z	0
-1.445208	M IH L Y AH N EH	0
-2.154436	V IH N V EH N SH	0
-0.1760913	T IY T W EH N T	0
-0.1760913	AE Z T W EH N T	0
-1.0147	IH SH AH L IH N T	0
-1.721469	DH ER AH V IH N V	0
-1.320363	CH T P AA T N EH	0
-1.721469	DH EH R IH Z N OW	0
-0.4910199	S AH CH TH IH NG AE	0
-0.9681411	EH R IH Z N OW S	0
-0.7920499	N EH V ER B OY L	0
-1.18999	HH AE V K AH P K	0
-1.18999	S IH Z M AY P AE	0
-0.7888837	B ER TH D EY P AA	0
-1.18999	SH AH N Z S P IY	0
-0.7888837	AH W AA CH T P AA	0
-0.1760913	TH D EY P AA R T	0
-1.39411	S IH Z F AO R R	0
-1.39411	L Y AH N EH R Z	0
-0.6873415	NG AE Z AH F R IY	0
-0.6873415	N D AY S K R IY	0
-0.6873415	IH Z F AO R R IY	0
-1.49102	Z M AY P AE S W	0
-1.49102	<s> JH EH L AH S IY	0
-1.49102	S AH N D AY S K	0
-0.7842516	<s> N AH S EH S AH	0
-0.7842516	AH P K EY K S AH	0
-1.089914	L AH JH AH N S IH	0
-0.7842516	R IH Z N OW S AH	0
-1.089914	<s> M AY V OY S IH	0
-1.49102	K SH AH N Z S P	0
-0.2613728	R T AH F IH SH AH	0
-0.2613728	IH N V EH N SH AH	0
-1.445262	AA CH T P AA T N	0
-1.445262	<s> AH W AA CH T P	0
-1.044156	W EH N T IY T W	0
-0.1760913	IY T W EH N T IY	0
-0.1760913	Z T W EH N T IY	0
-1.834817	SH AH L IH N T EH	0
-0.738494	D EY P AA R T IY	0
-1.044156	S IY HH AE Z T W	0
-0.7920499	N OW S AH CH TH IH	0
-0.4910199	<s> OW K EY G UW G	0
-1.336118	T IY Z HH AE V K	0
-0.9350117	M AH DH ER AH V IH	0
-1.336118	Y ER Z L AH V M	0
-1.336118	P AA T N EH V ER	0
-0.9350117	W EH N T IY V IH	0
-1.336118	ER AH V IH N V EH	0
-0.7888837	D ER DH AE N W ER	0
-0.7888837	M AY P AE S W ER	0
-0.1760913	EH N T IY T W EH	0
-0.1760913	IY HH AE Z T W EH	0
-0.7920499	N L IY L AO Y ER	0
-0.7920499	AH V M IH L Y AH	0
-1.604963	AH S IY HH AE Z T	0
-1.604963	CH TH IH NG AE Z AH	0
-1.604963	IY L AO Y ER Z L	0
-1.604963	S EH S AH IH Z DH	0
-1.604963	<s> DH EH R IH Z N	0
-1.604963	JH AH N S IH Z F	0
-1.604963	AY V OY S IH Z M	0
-1.604963	P AA R T IY Z HH	0
-1.604963	AE K SH AH N Z S	0
-0.4910199	N T IY V IH ZH AH	0

\8-grams:
-0.6919736	B ER TH D EY P AA R	0
-1.09308	AH W AA CH T P AA T	0
-1.269171	K L AW D ER DH AE N	0
-0.8680649	EH L AH S IY HH AE Z	0
-1.269171	AA R T IY Z HH AE V	0
-0.8680649	S AH CH TH IH NG AE Z	0
-1.269171	S IH Z M AY P AE S	0
-1.833443	EH S AH IH Z DH AH M	0
-1.432336	DH AH M AH DH ER AH V	0
-1.432336	OW K EY G UW G AH L	0
-0.4973246	N T EH L AH JH AH N	0
-1.833443	IY Z HH AE V K AH P	0
-1.833443	L IH N T EH L AH JH	0
-0.4973246	Z AH F R IY L AH N	0
-1.432336	L AO Y ER Z L AH V	0
-1.833443	AH IH Z DH AH M AH DH	0
-1.833443	<s> N AH S EH S AH IH	0
-0.4973246	AH P K EY K S AH N	0
-1.833443	R IH Z N OW S AH CH	0
-1.743126	R T AH F IH SH AH L	0
-0.1760913	IH N V EH N SH AH N	0
-0.4973246	AH V M IH L Y AH N	0
-1.432336	CH TH IH NG AE Z AH F	0
-0.4973246	N T IY V IH ZH AH N	0
-0.7920499	AH N S IH Z F AO R	0
-0.7920499	<s> OW N L IY L AO Y	0
-0.4910199	Z S P IY K L AW D	0
-0.9681411	EY K S AH N D AY S	0
-0.9681411	V OY S IH Z M AY P	0
-0.7920499	AA T N EH V ER B OY	0
-0.9681411	IH Z N OW S AH CH TH	0
-1.18999	S P IY K L AW D ER	0
-1.18999	ER DH AE N W ER D Z	0
-1.18999	K EY K S AH N D AY	0
-1.09308	IH Z DH AH M AH DH ER	0
-1.09308	IY K L AW D ER DH AE	0
-1.09308	S EH S AH IH Z DH AH	0
-1.044156	M IH L Y AH N EH R	0
-1.445262	CH T P AA T N EH V	0
-1.044156	SH AH L IH N T EH L	0
-0.738494	ER AH V IH N V EH N	0
-0.1760913	EH N T IY T W EH N	0
-0.1760913	IY HH AE Z T W EH N	0
-1.336118	P IY K L AW D ER DH	0
-1.336118	Z DH AH M AH DH ER AH	0
-1.336118	P AA T N EH V ER B	0
-0.1760913	D ER DH AE N W ER D	0
-0.1760913	M AY P AE S W ER D	0
-1.336118	N L IY L AO Y ER Z	0
-0.9681411	AE V K AH P K EY K	0
-0.9681411	TH IH NG AE Z AH F R	0
-0.9681411	JH AH N S IH Z F AO	0
-0.7920499	<s> OW K EY G UW G AH	0
-0.3909436	JH EH L AH S IY HH AE	0
-0.3909436	P AA R T IY Z HH AE	0
-0.39794	N AH S EH S AH IH Z	0
-1.49102	<s> AA R T AH F IH SH	0
-1.089914	AH F IH SH AH L IH N	0
-1.49102	ER Z L AH V M IH L	0
-0.1760913	L AH JH AH N S IH Z	0
-0.1760913	<s> M AY V OY S IH Z	0
-1.49102	N OW S AH CH TH IH NG	0
-1.089914	M AH DH ER AH V IH N	0
-1.49102	W EH N T IY V IH ZH	0
-1.445262	SH AH N Z S P IY K	0
-0.1760913	NG AE Z AH F R IY L	0
-1.834817	N D AY S K R IY M	0
-0.1760913	IH Z F AO R R IY L	0
-1.445262	<s> JH EH L AH S IY HH	0
-1.445262	IY T W EH N T IY V	0
-1.445262	Z T W EH N T IY T	0
-1.445262	D EY P AA R T IY Z	0
-0.7920499	IH N T EH L AH JH AH	0
-1.336118	V K AH P K EY K S	0
-1.336118	AH N Z S P IY K L	0
-0.9350117	HH AE V K AH P K EY	0
-1.336118	S AH N D AY S K R	0
-1.336118	T IY Z HH AE V K AH	0
-1.169095	K EY G UW G AH L Z	0
-1.570201	T AH F IH SH AH L IH	0
-0.1760913	AH L IH N T EH L AH	0
-1.570201	Z L AH V M IH L Y	0
-0.4771213	AE Z AH F R IY L AH	0
-1.570201	N Z S P IY K L AW	0
-1.169095	N EH V ER B OY L Z	0
-0.4771213	IY L AO Y ER Z L AH	0
-1.18999	S AH IH Z DH AH M AH	0
-1.18999	Y ER Z L AH V M IH	0
-0.7888837	AY V OY S IH Z M AY	0
-1.721469	L AW D ER DH AE N W	0
-1.846315	T EH L AH JH AH N S	0
-1.846315	AH F R IY L AH N CH	0
-1.846315	P K EY K S AH N D	0
-1.445208	V M IH L Y AH N EH	0
-2.154436	AH V IH N V EH N SH	0
-0.1760913	N T IY T W EH N T	0
-0.1760913	HH AE Z T W EH N T	0
-1.0147	F IH SH AH L IH N T	0
-1.721469	AH DH ER AH V IH N V	0
-1.320363	AA CH T P AA T N EH	0
-1.721469	<s> DH EH R IH Z N OW	0
-0.4910199	OW S AH CH TH IH NG AE	0
-0.9681411	DH EH R IH Z N OW S	0
-0.7920499	T N EH V ER B OY L	0
-1.18999	Z HH AE V K AH P K	0
-1.18999	OY S IH Z M AY P AE	0
-0.7888837	<s> B ER TH D EY P AA	0
-1.18999	K SH AH N Z S P IY	0
-0.7888837	<s> AH W AA CH T P AA	0
-0.1760913	ER TH D EY P AA R T	0
-1.39411	N S IH Z F AO R R	0
-1.39411	IH L Y AH N EH R Z	0
-0.6873415	IH NG AE Z AH F R IY	0
-0.6873415	AH N D AY S K R IY	0
-0.6873415	S IH Z F AO R R IY	0
-1.49102	IH Z M AY P AE S W	0
-1.49102	K S AH N D AY S K	0
-0.7842516	K AH P K EY K S AH	0
-1.089914	EH L AH JH AH N S IH	0
-0.7842516	EH R IH Z N OW S AH	0
-1.49102	AE K SH AH N Z S P	0
-0.2613728	AA R T AH F IH SH AH	0
-0.2613728	V IH N V EH N SH AH	0
-1.445262	W AA CH T P AA T N	0
-1.044156	T W EH N T IY T W	0
-0.1760913	T IY T W EH N T IY	0
-0.1760913	AE Z T W EH N T IY	0
-1.834817	IH SH AH L IH N T EH	0
-0.738494	TH D EY P AA R T IY	0
-1.044156	AH S IY HH AE Z T W	0
-0.7920499	Z N OW S AH CH TH IH	0
-1.336118	R T IY Z HH AE V K	0
-0.9350117	AH M AH DH ER AH V IH	0
-1.336118	AO Y ER Z L AH V M	0
-1.336118	T P AA T N EH V ER	0
-0.9350117	T W EH N T IY V IH	0
-1.336118	DH ER AH V IH N V EH	0
-0.7888837	AW D ER DH AE N W ER	0
-0.7888837	Z M AY P AE S W ER	0
-0.1760913	W EH N T IY T W EH	0
-0.1760913	S IY HH AE Z T W EH	0
-0.7920499	OW N L IY L AO Y ER	0
-0.7920499	L AH V M IH L Y AH	0
-1.604963	L AH S IY HH AE Z T	0
-1.604963	AH CH TH IH NG AE Z AH	0
-1.604963	L IY L AO Y ER Z L	0
-1.604963	AH S EH S AH IH Z DH	0
-1.604963	AH JH AH N S IH Z F	0
-1.604963	M AY V OY S IH Z M	0
-1.604963	EY P AA R T IY Z HH	0
-1.604963	<s> AE K SH AH N Z S	0
-0.4910199	EH N T IY V IH ZH AH	0

\9-grams:
-0.6919736	<s> B ER TH D EY P AA R	-99
-1.09308	<s> AH W AA CH T P AA T	-99
-1.269171	IY K L AW D ER DH AE N	-99
-0.8680649	JH EH L AH S IY HH AE Z	-99
-1.269171	P AA R T IY Z HH AE V	-99
-0.8680649	OW S AH CH TH IH NG AE Z	-99
-1.269171	OY S IH Z M AY P AE S	-99
-1.833443	S EH S AH IH Z DH AH M	-99
-1.432336	Z DH AH M AH DH ER AH V	-99
-1.432336	<s> OW K EY G UW G AH L	-99
-0.4973246	IH N T EH L AH JH AH N	-99
-1.833443	T IY Z HH AE V K AH P	-99
-1.833443	AH L IH N T EH L AH JH	-99
-0.4973246	AE Z AH F R IY L AH N	-99
-1.432336	IY L AO Y ER Z L AH V	-99
-1.833443	S AH IH Z DH AH M AH DH	-99
-0.4973246	K AH P K EY K S AH N	-99
-1.833443	EH R IH Z N OW S AH CH	-99
-1.743126	AA R T AH F IH SH AH L	-99
-0.1760913	V IH N V EH N SH AH N	-99
-0.4973246	L AH V M IH L Y AH N	-99
-1.432336	AH CH TH IH NG AE Z AH F	-99
-0.4973246	EH N T IY V IH ZH AH N	-99
-0.7920499	JH AH N S IH Z F AO R	-99
-0.4910199	N Z S P IY K L AW D	-99
-0.9681411	K EY K S AH N D AY S	-99
-0.9681411	AY V OY S IH Z M AY P	-99
-0.7920499	P AA T N EH V ER B OY	-99
-0.9681411	R IH Z N OW S AH CH TH	-99
-1.18999	Z S P IY K L AW D ER	-99
-1.18999	D ER DH AE N W ER D Z	-99
-1.18999	P K EY K S AH N D AY	-99
-1.09308	AH IH Z DH AH M AH DH ER	-99
-1.09308	P IY K L AW D ER DH AE	-99
-1.09308	AH S EH S AH IH Z DH AH	-99
-1.044156	V M IH L Y AH N EH R	-99
-1.445262	AA CH T P AA T N EH V	-99
-1.044156	IH SH AH L IH N T EH L	-99
-0.738494	DH ER AH V IH N V EH N	-99
-0.1760913	W EH N T IY T W EH N	-99
-0.1760913	S IY HH AE Z T W EH N	-99
-1.336118	S P IY K L AW D ER DH	-99
-1.336118	IH Z DH AH M AH DH ER AH	-99
-1.336118	T P AA T N EH V ER B	-99
-0.1760913	AW D ER DH AE N W ER D	-99
-0.1760913	Z M AY P AE S W ER D	-99
-1.336118	OW N L IY L AO Y ER Z	-99
-0.9681411	HH AE V K AH P K EY K	-99
-0.9681411	CH TH IH NG AE Z AH F R	-99
-0.9681411	AH JH AH N S IH Z F AO	-99
-0.3909436	<s> JH EH L AH S IY HH AE	-99
-0.3909436	EY P AA R T IY Z HH AE	-99
-0.39794	<s> N AH S EH S AH IH Z	-99
-1.089914	T AH F IH SH AH L IH N	-99
-1.49102	Y ER Z L AH V M IH L	-99
-0.1760913	EH L AH JH AH N S IH Z	-99
-1.49102	Z N OW S AH CH TH IH NG	-99
-1.089914	AH M AH DH ER AH V IH N	-99
-1.49102	T W EH N T IY V IH ZH	-99
-1.445262	K SH AH N Z S P IY K	-99
-0.1760913	IH NG AE Z AH F R IY L	-99
-1.834817	AH N D AY S K R IY M	-99
-0.1760913	S IH Z F AO R R IY L	-99
-1.445262	T IY T W EH N T IY V	-99
-1.445262	AE Z T W EH N T IY T	-99
-1.445262	TH D EY P AA R T IY Z	-99
-0.7920499	L IH N T EH L AH JH AH	-99
-1.336118	AE V K AH P K EY K S	-99
-1.336118	SH AH N Z S P IY K L	-99
-0.9350117	Z HH AE V K AH P K EY	-99
-1.336118	K S AH N D AY S K R	-99
-1.336118	R T IY Z HH AE V K AH	-99
-1.169095	OW K EY G UW G AH L Z	-99
-1.570201	R T AH F IH SH AH L IH	-99
-0.1760913	SH AH L IH N T EH L AH	-99
-1.570201	ER Z L AH V M IH L Y	-99
-0.4771213	NG AE Z AH F R IY L AH	-99
-1.570201	AH N Z S P IY K L AW	-99
-1.169095	T N EH V ER B OY L Z	-99
-0.4771213	L IY L AO Y ER Z L AH	-99
-1.18999	EH S AH IH Z DH AH M AH	-99
-1.18999	AO Y ER Z L AH V M IH	-99
-0.7888837	M AY V OY S IH Z M AY	-99
-1.721469	K L AW D ER DH AE N W	-99
-1.846315	N T EH L AH JH AH N S	-99
-1.846315	Z AH F R IY L AH N CH	-99
-1.846315	AH P K EY K S AH N D	-99
-1.445208	AH V M IH L Y AH N EH	-99
-2.154436	ER AH V IH N V EH N SH	-99
-0.1760913	EH N T IY T W EH N T	-99
-0.1760913	IY HH AE Z T W EH N T	-99
-1.0147	AH F IH SH AH L IH N T	-99
-1.721469	M AH DH ER AH V IH N V	-99
-1.320363	W AA CH T P AA T N EH	-99
-0.4910199	N OW S AH CH TH IH NG AE	-99
-0.9681411	<s> DH EH R IH Z N OW S	-99
-0.7920499	AA T N EH V ER B OY L	-99
-1.18999	IY Z HH AE V K AH P K	-99
-1.18999	V OY S IH Z M AY P AE	-99
-1.18999	AE K SH AH N Z S P IY	-99
-0.1760913	B ER TH D EY P AA R T	-99
-1.39411	AH N S IH Z F AO R R	-99
-1.39411	M IH L Y AH N EH R Z	-99
-0.6873415	TH IH NG AE Z AH F R IY	-99
-0.6873415	S AH N D AY S K R IY	-99
-0.6873415	N S IH Z F AO R R IY	-99
-1.49102	S IH Z M AY P AE S W	-99
-1.49102	EY K S AH N D AY S K	-99
-0.7842516	V K AH P K EY K S AH	-99
-1.089914	T EH L AH JH AH N S IH	-99
-0.7842516	DH EH R IH Z N OW S AH	-99
-1.49102	<s> AE K SH AH N Z S P	-99
-0.2613728	<s> AA R T AH F IH SH AH	-99
-0.2613728	AH V IH N V EH N SH AH	-99
-1.445262	AH W AA CH T P AA T N	-99
-1.044156	Z T W EH N T IY T W	-99
-0.1760913	N T IY T W EH N T IY	-99
-0.1760913	HH AE Z T W EH N T IY	-99
-1.834817	F IH SH AH L IH N T EH	-99
-0.738494	ER TH D EY P AA R T IY	-99
-1.044156	L AH S IY HH AE Z T W	-99
-0.7920499	IH Z N OW S AH CH TH IH	-99
-1.336118	AA R T IY Z HH AE V K	-99
-0.9350117	DH AH M AH DH ER AH V IH	-99
-1.336118	L AO Y ER Z L AH V M	-99
-1.336118	CH T P AA T N EH V ER	-99
-0.9350117	IY T W EH N T IY V IH	-99
-1.336118	AH DH ER AH V IH N V EH	-99
-0.7888837	L AW D ER DH AE N W ER	-99
-0.7888837	IH Z M AY P AE S W ER	-99
-0.1760913	T W EH N T IY T W EH	-99
-0.1760913	AH S IY HH AE Z T W EH	-99
-0.7920499	<s> OW N L IY L AO Y ER	-99
-0.7920499	Z L AH V M IH L Y AH	-99
-1.604963	EH L AH S IY HH AE Z T	-99
-1.604963	S AH CH TH IH NG AE Z AH	-99
-1.604963	N L IY L AO Y ER Z L	-99
-1.604963	N AH S EH S AH IH Z DH	-99
-1.604963	L AH JH AH N S IH Z F	-99
-1.604963	<s> M AY V OY S IH Z M	-99
-1.604963	D EY P AA R T IY Z HH	-99
-0.4910199	W EH N T IY V IH ZH AH	-99

\10-grams:
0	P IY K L AW D ER DH AE N
0	<s> JH EH L AH S IY HH AE Z
0	EY P AA R T IY Z HH AE V
0	N OW S AH CH TH IH NG AE Z
0	V OY S IH Z M AY P AE S
0	AH S EH S AH IH Z DH AH M
0	IH Z DH AH M AH DH ER AH V
0	L IH N T EH L AH JH AH N
0	R T IY Z HH AE V K AH P
0	SH AH L IH N T EH L AH JH
0	NG AE Z AH F R IY L AH N
0	L IY L AO Y ER Z L AH V
0	EH S AH IH Z DH AH M AH DH
0	V K AH P K EY K S AH N
0	DH EH R IH Z N OW S AH CH
0	<s> AA R T AH F IH SH AH L
0	AH V IH N V EH N SH AH N
0	Z L AH V M IH L Y AH N
0	S AH CH TH IH NG AE Z AH F
0	W EH N T IY V IH ZH AH N
0	AH JH AH N S IH Z F AO R
0	AH N Z S P IY K L AW D
0	P K EY K S AH N D AY S
0	M AY V OY S IH Z M AY P
0	T P AA T N EH V ER B OY
0	EH R IH Z N OW S AH CH TH
0	Z AH F R IY L AH N CH </s>
0	N Z S P IY K L AW D ER
0	AW D ER DH AE N W ER D Z
0	Z M AY P AE S W ER D </s>
0	AH P K EY K S AH N D AY
0	S AH IH Z DH AH M AH DH ER
0	S P IY K L AW D ER DH AE
0	N AH S EH S AH IH Z DH AH
0	AH V M IH L Y AH N EH R
0	W AA CH T P AA T N EH V
0	F IH SH AH L IH N T EH L
0	AH DH ER AH V IH N V EH N
0	T W EH N T IY T W EH N
0	AH S IY HH AE Z T W EH N
0	Z S P IY K L AW D ER DH
0	AH IH Z DH AH M AH DH ER AH
0	CH T P AA T N EH V ER B
0	L AW D ER DH AE N W ER D
0	IH Z M AY P AE S W ER D
0	<s> OW N L IY L AO Y ER Z
0	Z HH AE V K AH P K EY K
0	AH CH TH IH NG AE Z AH F R
0	L AH JH AH N S IH Z F AO
0	D EY P AA R T IY Z HH AE
0	R T AH F IH SH AH L IH N
0	AO Y ER Z L AH V M IH L
0	T EH L AH JH AH N S IH Z
0	IH Z N OW S AH CH TH IH NG
0	DH AH M AH DH ER AH V IH N
0	IY T W EH N T IY V IH ZH
0	AE K SH AH N Z S P IY K
0	TH IH NG AE Z AH F R IY L
0	S AH N D AY S K R IY M
0	N S IH Z F AO R R IY L
0	N T IY T W EH N T IY V
0	HH AE Z T W EH N T IY T
0	ER TH D EY P AA R T IY Z
0	AH L IH N T EH L AH JH AH
0	HH AE V K AH P K EY K S
0	K SH AH N Z S P IY K L
0	IY Z HH AE V K AH P K EY
0	EY K S AH N D AY S K R
0	AA R T IY Z HH AE V K AH
0	<s> OW K EY G UW G AH L Z
0	AA R T AH F IH SH AH L IH
0	IH SH AH L IH N T EH L AH
0	Y ER Z L AH V M IH L Y
0	IH NG AE Z AH F R IY L AH
0	S IH Z F AO R R IY L </s>
0	SH AH N Z S P IY K L AW
0	AA T N EH V ER B OY L Z
0	N L IY L AO Y ER Z L AH
0	S EH S AH IH Z DH AH M AH
0	AH N D AY S K R IY M </s>
0	L AO Y ER Z L AH V M IH
0	<s> M AY V OY S IH Z M AY
0	IY K L AW D ER DH AE N W
0	IH N T EH L AH JH AH N S
0	AE Z AH F R IY L AH N CH
0	K AH P K EY K S AH N D
0	V IH N V EH N SH AH N </s>
0	L AH V M IH L Y AH N EH
0	EH N T IY V IH ZH AH N </s>
0	DH ER AH V IH N V EH N SH
0	W EH N T IY T W EH N T
0	S IY HH AE Z T W EH N T
0	T AH F IH SH AH L IH N T
0	AH M AH DH ER AH V IH N V
0	AH W AA CH T P AA T N EH
0	Z N OW S AH CH TH IH NG AE
0	P AA T N EH V ER B OY L
0	T IY Z HH AE V K AH P K
0	AY V OY S IH Z M AY P AE
0	<s> AE K SH AH N Z S P IY
0	<s> B ER TH D EY P AA R T
0	JH AH N S IH Z F AO R R
0	V M IH L Y AH N EH R Z
0	CH TH IH NG AE Z AH F R IY
0	K S AH N D AY S K R IY
0	AH N S IH Z F AO R R IY
0	OY S IH Z M AY P AE S W
0	K EY K S AH N D AY S K
0	AE V K AH P K EY K S AH
0	N T EH L AH JH AH N S IH
0	<s> DH EH R IH Z N OW S AH
0	ER AH V IH N V EH N SH AH
0	<s> AH W AA CH T P AA T N
0	AE Z T W EH N T IY T W
0	EH N T IY T W EH N T IY
0	IY HH AE Z T W EH N T IY
0	AH F IH SH AH L IH N T EH
0	B ER TH D EY P AA R T IY
0	EH L AH S IY HH AE Z T W
0	R IH Z N OW S AH CH TH IH
0	P AA R T IY Z HH AE V K
0	Z DH AH M AH DH ER AH V IH
0	IY L AO Y ER Z L AH V M
0	AA CH T P AA T N EH V ER
0	T IY T W EH N T IY V IH
0	M AH DH ER AH V IH N V EH
0	K L AW D ER DH AE N W ER
0	S IH Z M AY P AE S W ER
0	Z T W EH N T IY T W EH
0	L AH S IY HH AE Z T W EH
0	ER Z L AH V M IH L Y AH
0	JH EH L AH S IY HH AE Z T
0	OW S AH CH TH IH NG AE Z AH
0	D ER DH AE N W ER D Z </s>
0	OW N L IY L AO Y ER Z L
0	<s> N AH S EH S AH IH Z DH
0	EH L AH JH AH N S IH Z F
0	TH D EY P AA R T IY Z HH
0	OW K EY G UW G AH L Z </s>
0	T N EH V ER B OY L Z </s>
0	M IH L Y AH N EH R Z </s>
0	T W EH N T IY V IH ZH AH

\end\
