
\data\
ngram 1=40
ngram 2=169
ngram 3=12
ngram 4=3

\1-grams:
-1.346353	</s>
-99	<s>	-0.02971789
-1.744293	AA	-0.1559959
-1.568202	AE	-0.06652547
-1.00393	AH	-0.1619012
-2.045323	AO	-0.1492881
-2.346353	AW	-0.159412
-1.869232	AY	-0.1239823
-2.045323	B	-0.1513319
-1.869232	CH	-0.1261483
-1.647383	D	-0.09246521
-1.744293	DH	-0.07337233
-1.39211	EH	-0.1269141
-1.501255	ER	-0.07910883
-1.869232	EY	-0.1410156
-1.869232	F	-0.1283036
-2.045323	G	-0.1218054
-2.045323	HH	-0.2146772
-1.346353	IH	-0.306103
-1.39211	IY	-0.09664095
-2.045323	JH	-0.1039857
-1.501255	K	-0.05340343
-1.267172	L	-0.1973604
-1.647383	M	-0.09293623
-1.115904	N	0.09186342
-2.346353	NG	-0.157406
-1.869232	OW	-0.09711014
-2.045323	OY	-0.1239823
-1.647383	P	-0.137219
-1.443263	R	-0.134384
-1.346353	S	-0.07096688
-1.869232	SH	-0.2993527
-1.39211	T	-0.07787586
-2.045323	TH	-0.1389226
-2.346353	UW	-0.165375
-1.501255	V	-0.09863097
-1.647383	W	-0.1735004
-2.045323	Y	-0.1085096
-1.23241	Z	-0.08986311
-2.346353	ZH	-0.1239823

\2-grams:
-1.49102	<s> AA
-1.49102	<s> AE
-1.49102	<s> AH
-1.49102	<s> B
-1.49102	<s> DH
-1.49102	<s> JH
-1.49102	<s> M
-1.49102	<s> N
-1.089914	<s> OW
-1.09308	AA CH
-0.6919736	AA R	-0.4305794
-1.09308	AA T
-1.269171	AE K
-1.269171	AE N
-1.269171	AE S
-1.269171	AE V
-0.8680649	AE Z
-1.833443	AH CH
-1.833443	AH DH
-1.432336	AH F
-1.833443	AH IH
-1.833443	AH JH
-1.432336	AH L
-1.833443	AH M
-0.4973246	AH N	-0.1248457
-1.833443	AH P
-1.432336	AH S
-1.432336	AH V
-1.833443	AH W
-0.7920499	AO R
-0.7920499	AO Y
-0.4910199	AW D
-0.9681411	AY P
-0.9681411	AY S
-0.9681411	AY V
-0.7920499	B ER
-0.7920499	B OY
-0.9681411	CH </s>
-0.9681411	CH T
-0.9681411	CH TH
-1.18999	D </s>
-1.18999	D AY
-1.18999	D ER
-1.18999	D EY
-1.18999	D Z
-1.09308	DH AE
-1.09308	DH AH
-1.09308	DH EH
-1.09308	DH ER
-1.044156	EH L	-0.30103
-0.738494	EH N	-0.4329669
-1.044156	EH R
-1.445262	EH S
-1.445262	EH V
-1.336118	ER AH
-1.336118	ER B
-0.9350117	ER D
-1.336118	ER DH
-1.336118	ER TH
-1.336118	ER Z
-0.9681411	EY G
-0.9681411	EY K
-0.9681411	EY P
-0.9681411	F AO
-0.9681411	F IH
-0.9681411	F R
-0.7920499	G AH
-0.7920499	G UW
-0.3909436	HH AE
-1.49102	IH L
-1.089914	IH N
-1.49102	IH NG
-1.49102	IH SH
-0.39794	IH Z
-1.49102	IH ZH
-1.445262	IY HH
-1.445262	IY K
-0.738494	IY L
-1.445262	IY M
-1.445262	IY T
-1.445262	IY V
-1.445262	IY Z
-0.7920499	JH AH
-0.7920499	JH EH
-1.336118	K AH
-0.9350117	K EY
-1.336118	K L
-1.336118	K R
-1.336118	K S
-1.336118	K SH
-1.570201	L </s>
-0.4771213	L AH
-1.570201	L AO
-1.570201	L AW
-1.570201	L IH
-1.570201	L IY
-1.570201	L Y
-1.169095	L Z	-0.3174204
-1.18999	M </s>
-1.18999	M AH
-0.7888837	M AY
-1.18999	M IH
-1.320363	N </s>
-1.721469	N AH
-1.721469	N CH
-1.721469	N D
-1.320363	N EH
-1.721469	N L
-1.721469	N OW
-1.721469	N S
-1.721469	N SH
-1.0147	N T	-0.3895547
-1.721469	N V
-1.721469	N W
-1.721469	N Z
-0.4910199	NG AE
-0.9681411	OW K
-0.9681411	OW N
-0.9681411	OW S
-0.7920499	OY L
-0.7920499	OY S
-0.7888837	P AA
-1.18999	P AE
-1.18999	P IY
-1.18999	P K
-1.39411	R IH
-0.6873415	R IY	-0.3895547
-1.39411	R R
-0.9930037	R T
-1.39411	R Z
-0.7842516	S AH
-1.49102	S EH
-1.089914	S IH	-0.2552725
-1.49102	S IY
-1.49102	S K
-1.49102	S P
-1.49102	S W
-0.2613728	SH AH	-0.3107899
-1.445262	T AH
-1.445262	T EH
-0.738494	T IY
-1.445262	T N
-1.445262	T P
-1.044156	T W	-0.4000551
-0.7920499	TH D
-0.7920499	TH IH
-0.4910199	UW G
-1.336118	V EH
-1.336118	V ER
-0.9350117	V IH
-1.336118	V K
-1.336118	V M
-1.336118	V OY
-1.18999	W AA
-0.7888837	W EH	-0.3895547
-0.7888837	W ER	-0.4235039
-0.7920499	Y AH
-0.7920499	Y ER
-0.5118834	Z </s>
-1.604963	Z AH
-1.604963	Z DH
-1.604963	Z F
-1.604963	Z HH
-1.604963	Z L
-1.604963	Z M
-1.604963	Z N
-1.604963	Z S
-1.604963	Z T
-0.4910199	ZH AH

\3-grams:
-0.1760913	SH AH N
-0.1760913	W EH N	0
-0.1760913	W ER D
-0.1760913	S IH Z
-0.1760913	R IY L
-0.1760913	EH L AH
-0.544068	AH N </s>
-0.1760913	EH N T	0
-0.1760913	AA R T
-0.1760913	N T IY
-0.1760913	T W EH	0
-0.1760913	L Z </s>

\4-grams:
-0.1760913	T W EH N	0
-0.1760913	W EH N T	0
-0.1760913	EH N T IY
\end\
